digraph Tree {
node [shape=box, style="filled, rounded", color="black", fontname=helvetica] ;
edge [fontname=helvetica] ;
0 [label=<packed_cell_volume &le; 51.5<br/>gini = 0.573<br/>samples = 239<br/>value = [65, 37, 137]>, fillcolor="#8139e56a"] ;
1 [label=<surgical_lesion &le; 0.5<br/>gini = 0.472<br/>samples = 181<br/>value = [35, 21, 125]>, fillcolor="#8139e59d"] ;
0 -> 1 [labeldistance=2.5, labelangle=45, headlabel="True"] ;
2 [label=<pulse &le; 73.0<br/>gini = 0.242<br/>samples = 73<br/>value = [2, 8, 63]>, fillcolor="#8139e5d8"] ;
1 -> 2 ;
3 [label=<pulse &le; 38.0<br/>gini = 0.066<br/>samples = 59<br/>value = [1, 1, 57]>, fillcolor="#8139e5f6"] ;
2 -> 3 ;
4 [label=<nasogastric_tube &le; 1.5<br/>gini = 0.5<br/>samples = 2<br/>value = [0, 1, 1]>, fillcolor="#39e58100"] ;
3 -> 4 ;
5 [label=<gini = 0.0<br/>samples = 1<br/>value = [0, 1, 0]>, fillcolor="#39e581ff"] ;
4 -> 5 ;
6 [label=<gini = 0.0<br/>samples = 1<br/>value = [0, 0, 1]>, fillcolor="#8139e5ff"] ;
4 -> 6 ;
7 [label=<lesion_1 &le; 9800.0<br/>gini = 0.034<br/>samples = 57<br/>value = [1, 0, 56]>, fillcolor="#8139e5fa"] ;
3 -> 7 ;
8 [label=<gini = 0.0<br/>samples = 56<br/>value = [0, 0, 56]>, fillcolor="#8139e5ff"] ;
7 -> 8 ;
9 [label=<gini = 0.0<br/>samples = 1<br/>value = [1, 0, 0]>, fillcolor="#e58139ff"] ;
7 -> 9 ;
10 [label=<total_protein &le; 6.4<br/>gini = 0.561<br/>samples = 14<br/>value = [1, 7, 6]>, fillcolor="#39e58120"] ;
2 -> 10 ;
11 [label=<nasogastric_reflux_ph &le; 5.1<br/>gini = 0.406<br/>samples = 8<br/>value = [1, 1, 6]>, fillcolor="#8139e5b6"] ;
10 -> 11 ;
12 [label=<respiratory_rate &le; 18.0<br/>gini = 0.245<br/>samples = 7<br/>value = [0, 1, 6]>, fillcolor="#8139e5d4"] ;
11 -> 12 ;
13 [label=<gini = 0.0<br/>samples = 1<br/>value = [0, 1, 0]>, fillcolor="#39e581ff"] ;
12 -> 13 ;
14 [label=<gini = 0.0<br/>samples = 6<br/>value = [0, 0, 6]>, fillcolor="#8139e5ff"] ;
12 -> 14 ;
15 [label=<gini = 0.0<br/>samples = 1<br/>value = [1, 0, 0]>, fillcolor="#e58139ff"] ;
11 -> 15 ;
16 [label=<gini = 0.0<br/>samples = 6<br/>value = [0, 6, 0]>, fillcolor="#39e581ff"] ;
10 -> 16 ;
17 [label=<total_protein &le; 49.5<br/>gini = 0.563<br/>samples = 108<br/>value = [33, 13, 62]>, fillcolor="#8139e563"] ;
1 -> 17 ;
18 [label=<hospital_number &le; 5293514.0<br/>gini = 0.582<br/>samples = 85<br/>value = [33, 9, 43]>, fillcolor="#8139e531"] ;
17 -> 18 ;
19 [label=<rectal_temp &le; 38.15<br/>gini = 0.578<br/>samples = 81<br/>value = [29, 9, 43]>, fillcolor="#8139e545"] ;
18 -> 19 ;
20 [label=<hospital_number &le; 532317.5<br/>gini = 0.623<br/>samples = 55<br/>value = [23, 9, 23]>, fillcolor="#e5813900"] ;
19 -> 20 ;
21 [label=<peristalsis &le; 2.5<br/>gini = 0.582<br/>samples = 44<br/>value = [23, 5, 16]>, fillcolor="#e5813940"] ;
20 -> 21 ;
22 [label=<lesion_1 &le; 3164.5<br/>gini = 0.564<br/>samples = 40<br/>value = [23, 5, 12]>, fillcolor="#e5813964"] ;
21 -> 22 ;
23 [label=<hospital_number &le; 529866.5<br/>gini = 0.618<br/>samples = 26<br/>value = [11, 4, 11]>, fillcolor="#e5813900"] ;
22 -> 23 ;
24 [label=<surgery &le; 0.5<br/>gini = 0.604<br/>samples = 15<br/>value = [3, 4, 8]>, fillcolor="#8139e55d"] ;
23 -> 24 ;
25 [label=<gini = 0.0<br/>samples = 4<br/>value = [0, 4, 0]>, fillcolor="#39e581ff"] ;
24 -> 25 ;
26 [label=<rectal_temp &le; 37.6<br/>gini = 0.397<br/>samples = 11<br/>value = [3, 0, 8]>, fillcolor="#8139e59f"] ;
24 -> 26 ;
27 [label=<gini = 0.0<br/>samples = 2<br/>value = [2, 0, 0]>, fillcolor="#e58139ff"] ;
26 -> 27 ;
28 [label=<total_protein &le; 8.2<br/>gini = 0.198<br/>samples = 9<br/>value = [1, 0, 8]>, fillcolor="#8139e5df"] ;
26 -> 28 ;
29 [label=<gini = 0.0<br/>samples = 8<br/>value = [0, 0, 8]>, fillcolor="#8139e5ff"] ;
28 -> 29 ;
30 [label=<gini = 0.0<br/>samples = 1<br/>value = [1, 0, 0]>, fillcolor="#e58139ff"] ;
28 -> 30 ;
31 [label=<abdomen &le; 1.5<br/>gini = 0.397<br/>samples = 11<br/>value = [8, 0, 3]>, fillcolor="#e581399f"] ;
23 -> 31 ;
32 [label=<abdomo_appearance &le; 1.5<br/>gini = 0.198<br/>samples = 9<br/>value = [8, 0, 1]>, fillcolor="#e58139df"] ;
31 -> 32 ;
33 [label=<gini = 0.0<br/>samples = 8<br/>value = [8, 0, 0]>, fillcolor="#e58139ff"] ;
32 -> 33 ;
34 [label=<gini = 0.0<br/>samples = 1<br/>value = [0, 0, 1]>, fillcolor="#8139e5ff"] ;
32 -> 34 ;
35 [label=<gini = 0.0<br/>samples = 2<br/>value = [0, 0, 2]>, fillcolor="#8139e5ff"] ;
31 -> 35 ;
36 [label=<respiratory_rate &le; 58.0<br/>gini = 0.255<br/>samples = 14<br/>value = [12, 1, 1]>, fillcolor="#e58139d8"] ;
22 -> 36 ;
37 [label=<gini = 0.0<br/>samples = 12<br/>value = [12, 0, 0]>, fillcolor="#e58139ff"] ;
36 -> 37 ;
38 [label=<temp_of_extremities &le; 1.5<br/>gini = 0.5<br/>samples = 2<br/>value = [0, 1, 1]>, fillcolor="#39e58100"] ;
36 -> 38 ;
39 [label=<gini = 0.0<br/>samples = 1<br/>value = [0, 1, 0]>, fillcolor="#39e581ff"] ;
38 -> 39 ;
40 [label=<gini = 0.0<br/>samples = 1<br/>value = [0, 0, 1]>, fillcolor="#8139e5ff"] ;
38 -> 40 ;
41 [label=<gini = 0.0<br/>samples = 4<br/>value = [0, 0, 4]>, fillcolor="#8139e5ff"] ;
21 -> 41 ;
42 [label=<packed_cell_volume &le; 45.5<br/>gini = 0.463<br/>samples = 11<br/>value = [0, 4, 7]>, fillcolor="#8139e56d"] ;
20 -> 42 ;
43 [label=<gini = 0.0<br/>samples = 6<br/>value = [0, 0, 6]>, fillcolor="#8139e5ff"] ;
42 -> 43 ;
44 [label=<lesion_1 &le; 3111.5<br/>gini = 0.32<br/>samples = 5<br/>value = [0, 4, 1]>, fillcolor="#39e581bf"] ;
42 -> 44 ;
45 [label=<gini = 0.0<br/>samples = 1<br/>value = [0, 0, 1]>, fillcolor="#8139e5ff"] ;
44 -> 45 ;
46 [label=<gini = 0.0<br/>samples = 4<br/>value = [0, 4, 0]>, fillcolor="#39e581ff"] ;
44 -> 46 ;
47 [label=<abdomo_appearance &le; 1.5<br/>gini = 0.355<br/>samples = 26<br/>value = [6, 0, 20]>, fillcolor="#8139e5b3"] ;
19 -> 47 ;
48 [label=<respiratory_rate &le; 93.0<br/>gini = 0.236<br/>samples = 22<br/>value = [3, 0, 19]>, fillcolor="#8139e5d7"] ;
47 -> 48 ;
49 [label=<total_protein &le; 7.35<br/>gini = 0.18<br/>samples = 20<br/>value = [2, 0, 18]>, fillcolor="#8139e5e3"] ;
48 -> 49 ;
50 [label=<gini = 0.0<br/>samples = 13<br/>value = [0, 0, 13]>, fillcolor="#8139e5ff"] ;
49 -> 50 ;
51 [label=<packed_cell_volume &le; 46.0<br/>gini = 0.408<br/>samples = 7<br/>value = [2, 0, 5]>, fillcolor="#8139e599"] ;
49 -> 51 ;
52 [label=<gini = 0.0<br/>samples = 2<br/>value = [2, 0, 0]>, fillcolor="#e58139ff"] ;
51 -> 52 ;
53 [label=<gini = 0.0<br/>samples = 5<br/>value = [0, 0, 5]>, fillcolor="#8139e5ff"] ;
51 -> 53 ;
54 [label=<rectal_temp &le; 38.75<br/>gini = 0.5<br/>samples = 2<br/>value = [1, 0, 1]>, fillcolor="#e5813900"] ;
48 -> 54 ;
55 [label=<gini = 0.0<br/>samples = 1<br/>value = [0, 0, 1]>, fillcolor="#8139e5ff"] ;
54 -> 55 ;
56 [label=<gini = 0.0<br/>samples = 1<br/>value = [1, 0, 0]>, fillcolor="#e58139ff"] ;
54 -> 56 ;
57 [label=<mucous_membrane &le; 2.5<br/>gini = 0.375<br/>samples = 4<br/>value = [3, 0, 1]>, fillcolor="#e58139aa"] ;
47 -> 57 ;
58 [label=<gini = 0.0<br/>samples = 3<br/>value = [3, 0, 0]>, fillcolor="#e58139ff"] ;
57 -> 58 ;
59 [label=<gini = 0.0<br/>samples = 1<br/>value = [0, 0, 1]>, fillcolor="#8139e5ff"] ;
57 -> 59 ;
60 [label=<gini = 0.0<br/>samples = 4<br/>value = [4, 0, 0]>, fillcolor="#e58139ff"] ;
18 -> 60 ;
61 [label=<rectal_temp &le; 37.55<br/>gini = 0.287<br/>samples = 23<br/>value = [0, 4, 19]>, fillcolor="#8139e5c9"] ;
17 -> 61 ;
62 [label=<abdomo_protein &le; 1.5<br/>gini = 0.444<br/>samples = 3<br/>value = [0, 2, 1]>, fillcolor="#39e5817f"] ;
61 -> 62 ;
63 [label=<gini = 0.0<br/>samples = 1<br/>value = [0, 0, 1]>, fillcolor="#8139e5ff"] ;
62 -> 63 ;
64 [label=<gini = 0.0<br/>samples = 2<br/>value = [0, 2, 0]>, fillcolor="#39e581ff"] ;
62 -> 64 ;
65 [label=<rectal_temp &le; 39.25<br/>gini = 0.18<br/>samples = 20<br/>value = [0, 2, 18]>, fillcolor="#8139e5e3"] ;
61 -> 65 ;
66 [label=<packed_cell_volume &le; 36.5<br/>gini = 0.1<br/>samples = 19<br/>value = [0, 1, 18]>, fillcolor="#8139e5f1"] ;
65 -> 66 ;
67 [label=<pain &le; 2.5<br/>gini = 0.32<br/>samples = 5<br/>value = [0, 1, 4]>, fillcolor="#8139e5bf"] ;
66 -> 67 ;
68 [label=<gini = 0.0<br/>samples = 1<br/>value = [0, 1, 0]>, fillcolor="#39e581ff"] ;
67 -> 68 ;
69 [label=<gini = 0.0<br/>samples = 4<br/>value = [0, 0, 4]>, fillcolor="#8139e5ff"] ;
67 -> 69 ;
70 [label=<gini = 0.0<br/>samples = 14<br/>value = [0, 0, 14]>, fillcolor="#8139e5ff"] ;
66 -> 70 ;
71 [label=<gini = 0.0<br/>samples = 1<br/>value = [0, 1, 0]>, fillcolor="#39e581ff"] ;
65 -> 71 ;
72 [label=<total_protein &le; 9.5<br/>gini = 0.614<br/>samples = 58<br/>value = [30, 16, 12]>, fillcolor="#e5813955"] ;
0 -> 72 [labeldistance=2.5, labelangle=-45, headlabel="False"] ;
73 [label=<pulse &le; 98.0<br/>gini = 0.444<br/>samples = 42<br/>value = [30, 4, 8]>, fillcolor="#e58139a5"] ;
72 -> 73 ;
74 [label=<lesion_1 &le; 850.0<br/>gini = 0.21<br/>samples = 26<br/>value = [23, 1, 2]>, fillcolor="#e58139df"] ;
73 -> 74 ;
75 [label=<gini = 0.0<br/>samples = 1<br/>value = [0, 1, 0]>, fillcolor="#39e581ff"] ;
74 -> 75 ;
76 [label=<respiratory_rate &le; 15.5<br/>gini = 0.147<br/>samples = 25<br/>value = [23, 0, 2]>, fillcolor="#e58139e9"] ;
74 -> 76 ;
77 [label=<gini = 0.0<br/>samples = 1<br/>value = [0, 0, 1]>, fillcolor="#8139e5ff"] ;
76 -> 77 ;
78 [label=<temp_of_extremities &le; 1.5<br/>gini = 0.08<br/>samples = 24<br/>value = [23, 0, 1]>, fillcolor="#e58139f4"] ;
76 -> 78 ;
79 [label=<gini = 0.0<br/>samples = 21<br/>value = [21, 0, 0]>, fillcolor="#e58139ff"] ;
78 -> 79 ;
80 [label=<rectal_exam_feces &le; 1.5<br/>gini = 0.444<br/>samples = 3<br/>value = [2, 0, 1]>, fillcolor="#e581397f"] ;
78 -> 80 ;
81 [label=<gini = 0.0<br/>samples = 1<br/>value = [0, 0, 1]>, fillcolor="#8139e5ff"] ;
80 -> 81 ;
82 [label=<gini = 0.0<br/>samples = 2<br/>value = [2, 0, 0]>, fillcolor="#e58139ff"] ;
80 -> 82 ;
83 [label=<lesion_1 &le; 2164.5<br/>gini = 0.633<br/>samples = 16<br/>value = [7, 3, 6]>, fillcolor="#e581391a"] ;
73 -> 83 ;
84 [label=<gini = 0.0<br/>samples = 4<br/>value = [0, 0, 4]>, fillcolor="#8139e5ff"] ;
83 -> 84 ;
85 [label=<abdomen &le; 1.5<br/>gini = 0.569<br/>samples = 12<br/>value = [7, 3, 2]>, fillcolor="#e5813971"] ;
83 -> 85 ;
86 [label=<lesion_1 &le; 4850.0<br/>gini = 0.46<br/>samples = 10<br/>value = [7, 1, 2]>, fillcolor="#e581399f"] ;
85 -> 86 ;
87 [label=<respiratory_rate &le; 16.5<br/>gini = 0.219<br/>samples = 8<br/>value = [7, 0, 1]>, fillcolor="#e58139db"] ;
86 -> 87 ;
88 [label=<gini = 0.0<br/>samples = 1<br/>value = [0, 0, 1]>, fillcolor="#8139e5ff"] ;
87 -> 88 ;
89 [label=<gini = 0.0<br/>samples = 7<br/>value = [7, 0, 0]>, fillcolor="#e58139ff"] ;
87 -> 89 ;
90 [label=<hospital_number &le; 532147.0<br/>gini = 0.5<br/>samples = 2<br/>value = [0, 1, 1]>, fillcolor="#39e58100"] ;
86 -> 90 ;
91 [label=<gini = 0.0<br/>samples = 1<br/>value = [0, 1, 0]>, fillcolor="#39e581ff"] ;
90 -> 91 ;
92 [label=<gini = 0.0<br/>samples = 1<br/>value = [0, 0, 1]>, fillcolor="#8139e5ff"] ;
90 -> 92 ;
93 [label=<gini = 0.0<br/>samples = 2<br/>value = [0, 2, 0]>, fillcolor="#39e581ff"] ;
85 -> 93 ;
94 [label=<respiratory_rate &le; 22.0<br/>gini = 0.375<br/>samples = 16<br/>value = [0, 12, 4]>, fillcolor="#39e581aa"] ;
72 -> 94 ;
95 [label=<nasogastric_tube &le; 1.0<br/>gini = 0.375<br/>samples = 4<br/>value = [0, 1, 3]>, fillcolor="#8139e5aa"] ;
94 -> 95 ;
96 [label=<gini = 0.0<br/>samples = 1<br/>value = [0, 1, 0]>, fillcolor="#39e581ff"] ;
95 -> 96 ;
97 [label=<gini = 0.0<br/>samples = 3<br/>value = [0, 0, 3]>, fillcolor="#8139e5ff"] ;
95 -> 97 ;
98 [label=<pulse &le; 124.5<br/>gini = 0.153<br/>samples = 12<br/>value = [0, 11, 1]>, fillcolor="#39e581e8"] ;
94 -> 98 ;
99 [label=<gini = 0.0<br/>samples = 10<br/>value = [0, 10, 0]>, fillcolor="#39e581ff"] ;
98 -> 99 ;
100 [label=<total_protein &le; 67.5<br/>gini = 0.5<br/>samples = 2<br/>value = [0, 1, 1]>, fillcolor="#39e58100"] ;
98 -> 100 ;
101 [label=<gini = 0.0<br/>samples = 1<br/>value = [0, 0, 1]>, fillcolor="#8139e5ff"] ;
100 -> 101 ;
102 [label=<gini = 0.0<br/>samples = 1<br/>value = [0, 1, 0]>, fillcolor="#39e581ff"] ;
100 -> 102 ;
}
